digraph Tree {
node [shape=box, fontname="helvetica"] ;
edge [fontname="helvetica"] ;
0 [label="tip <= 3.22\nsquared_error = 0.005\nsamples = 194\nvalue = 0.192"] ;
1 [label="total_bill <= 15.88\nsquared_error = 0.004\nsamples = 127\nvalue = 0.172"] ;
0 -> 1 [labeldistance=2.5, labelangle=45, headlabel="True"] ;
2 [label="total_bill <= 4.41\nsquared_error = 0.004\nsamples = 70\nvalue = 0.204"] ;
1 -> 2 ;
3 [label="squared_error = 0.0\nsamples = 1\nvalue = 0.483"] ;
2 -> 3 ;
4 [label="tip <= 1.86\nsquared_error = 0.003\nsamples = 69\nvalue = 0.2"] ;
2 -> 4 ;
5 [label="total_bill <= 12.445\nsquared_error = 0.001\nsamples = 28\nvalue = 0.161"] ;
4 -> 5 ;
6 [label="total_bill <= 9.035\nsquared_error = 0.001\nsamples = 21\nvalue = 0.176"] ;
5 -> 6 ;
7 [label="tip <= 1.345\nsquared_error = 0.001\nsamples = 6\nvalue = 0.2"] ;
6 -> 7 ;
8 [label="label_day <= 0.5\nsquared_error = 0.0\nsamples = 3\nvalue = 0.181"] ;
7 -> 8 ;
9 [label="squared_error = 0.0\nsamples = 1\nvalue = 0.211"] ;
8 -> 9 ;
10 [label="size <= 1.5\nsquared_error = 0.0\nsamples = 2\nvalue = 0.166"] ;
8 -> 10 ;
11 [label="squared_error = 0.0\nsamples = 1\nvalue = 0.16"] ;
10 -> 11 ;
12 [label="squared_error = -0.0\nsamples = 1\nvalue = 0.172"] ;
10 -> 12 ;
13 [label="label_time <= 0.5\nsquared_error = 0.0\nsamples = 3\nvalue = 0.219"] ;
7 -> 13 ;
14 [label="squared_error = 0.0\nsamples = 1\nvalue = 0.229"] ;
13 -> 14 ;
15 [label="label_sex <= 0.5\nsquared_error = 0.0\nsamples = 2\nvalue = 0.215"] ;
13 -> 15 ;
16 [label="squared_error = 0.0\nsamples = 1\nvalue = 0.219"] ;
15 -> 16 ;
17 [label="squared_error = 0.0\nsamples = 1\nvalue = 0.21"] ;
15 -> 17 ;
18 [label="tip <= 1.645\nsquared_error = 0.0\nsamples = 15\nvalue = 0.167"] ;
6 -> 18 ;
19 [label="tip <= 1.285\nsquared_error = 0.0\nsamples = 10\nvalue = 0.157"] ;
18 -> 19 ;
20 [label="total_bill <= 10.29\nsquared_error = 0.0\nsamples = 2\nvalue = 0.138"] ;
19 -> 20 ;
21 [label="squared_error = 0.0\nsamples = 1\nvalue = 0.142"] ;
20 -> 21 ;
22 [label="squared_error = 0.0\nsamples = 1\nvalue = 0.135"] ;
20 -> 22 ;
23 [label="total_bill <= 10.71\nsquared_error = 0.0\nsamples = 8\nvalue = 0.161"] ;
19 -> 23 ;
24 [label="label_day <= 1.5\nsquared_error = 0.0\nsamples = 4\nvalue = 0.17"] ;
23 -> 24 ;
25 [label="label_smoker <= 0.5\nsquared_error = 0.0\nsamples = 2\nvalue = 0.179"] ;
24 -> 25 ;
26 [label="squared_error = 0.0\nsamples = 1\nvalue = 0.179"] ;
25 -> 26 ;
27 [label="squared_error = 0.0\nsamples = 1\nvalue = 0.179"] ;
25 -> 27 ;
28 [label="label_day <= 2.5\nsquared_error = 0.0\nsamples = 2\nvalue = 0.161"] ;
24 -> 28 ;
29 [label="squared_error = 0.0\nsamples = 1\nvalue = 0.158"] ;
28 -> 29 ;
30 [label="squared_error = 0.0\nsamples = 1\nvalue = 0.164"] ;
28 -> 30 ;
31 [label="label_smoker <= 0.5\nsquared_error = 0.0\nsamples = 4\nvalue = 0.152"] ;
23 -> 31 ;
32 [label="label_day <= 2.0\nsquared_error = 0.0\nsamples = 2\nvalue = 0.159"] ;
31 -> 32 ;
33 [label="squared_error = 0.0\nsamples = 1\nvalue = 0.158"] ;
32 -> 33 ;
34 [label="squared_error = 0.0\nsamples = 1\nvalue = 0.159"] ;
32 -> 34 ;
35 [label="label_day <= 0.5\nsquared_error = 0.0\nsamples = 2\nvalue = 0.146"] ;
31 -> 35 ;
36 [label="squared_error = 0.0\nsamples = 1\nvalue = 0.142"] ;
35 -> 36 ;
37 [label="squared_error = 0.0\nsamples = 1\nvalue = 0.149"] ;
35 -> 37 ;
38 [label="label_time <= 0.5\nsquared_error = 0.0\nsamples = 5\nvalue = 0.188"] ;
18 -> 38 ;
39 [label="total_bill <= 10.3\nsquared_error = 0.0\nsamples = 4\nvalue = 0.192"] ;
38 -> 39 ;
40 [label="squared_error = 0.0\nsamples = 1\nvalue = 0.2"] ;
39 -> 40 ;
41 [label="total_bill <= 10.79\nsquared_error = 0.0\nsamples = 3\nvalue = 0.19"] ;
39 -> 41 ;
42 [label="label_sex <= 0.5\nsquared_error = 0.0\nsamples = 2\nvalue = 0.192"] ;
41 -> 42 ;
43 [label="squared_error = 0.0\nsamples = 1\nvalue = 0.193"] ;
42 -> 43 ;
44 [label="squared_error = 0.0\nsamples = 1\nvalue = 0.191"] ;
42 -> 44 ;
45 [label="squared_error = 0.0\nsamples = 1\nvalue = 0.186"] ;
41 -> 45 ;
46 [label="squared_error = 0.0\nsamples = 1\nvalue = 0.169"] ;
38 -> 46 ;
47 [label="tip <= 1.3\nsquared_error = 0.0\nsamples = 7\nvalue = 0.114"] ;
5 -> 47 ;
48 [label="label_sex <= 0.5\nsquared_error = 0.0\nsamples = 2\nvalue = 0.09"] ;
47 -> 48 ;
49 [label="squared_error = 0.0\nsamples = 1\nvalue = 0.093"] ;
48 -> 49 ;
50 [label="squared_error = 0.0\nsamples = 1\nvalue = 0.086"] ;
48 -> 50 ;
51 [label="total_bill <= 14.39\nsquared_error = 0.0\nsamples = 5\nvalue = 0.124"] ;
47 -> 51 ;
52 [label="label_time <= 0.5\nsquared_error = 0.0\nsamples = 2\nvalue = 0.14"] ;
51 -> 52 ;
53 [label="squared_error = 0.0\nsamples = 1\nvalue = 0.137"] ;
52 -> 53 ;
54 [label="squared_error = 0.0\nsamples = 1\nvalue = 0.143"] ;
52 -> 54 ;
55 [label="tip <= 1.535\nsquared_error = 0.0\nsamples = 3\nvalue = 0.113"] ;
51 -> 55 ;
56 [label="squared_error = 0.0\nsamples = 1\nvalue = 0.106"] ;
55 -> 56 ;
57 [label="total_bill <= 15.39\nsquared_error = 0.0\nsamples = 2\nvalue = 0.116"] ;
55 -> 57 ;
58 [label="squared_error = 0.0\nsamples = 1\nvalue = 0.12"] ;
57 -> 58 ;
59 [label="squared_error = 0.0\nsamples = 1\nvalue = 0.113"] ;
57 -> 59 ;
60 [label="total_bill <= 10.31\nsquared_error = 0.002\nsamples = 41\nvalue = 0.227"] ;
4 -> 60 ;
61 [label="label_day <= 1.0\nsquared_error = 0.002\nsamples = 5\nvalue = 0.306"] ;
60 -> 61 ;
62 [label="tip <= 1.96\nsquared_error = 0.0\nsamples = 2\nvalue = 0.268"] ;
61 -> 62 ;
63 [label="squared_error = 0.0\nsamples = 1\nvalue = 0.288"] ;
62 -> 63 ;
64 [label="squared_error = 0.0\nsamples = 1\nvalue = 0.247"] ;
62 -> 64 ;
65 [label="label_day <= 2.5\nsquared_error = 0.001\nsamples = 3\nvalue = 0.332"] ;
61 -> 65 ;
66 [label="tip <= 2.3\nsquared_error = 0.0\nsamples = 2\nvalue = 0.317"] ;
65 -> 66 ;
67 [label="squared_error = 0.0\nsamples = 1\nvalue = 0.295"] ;
66 -> 67 ;
68 [label="squared_error = 0.0\nsamples = 1\nvalue = 0.338"] ;
66 -> 68 ;
69 [label="squared_error = 0.0\nsamples = 1\nvalue = 0.363"] ;
65 -> 69 ;
70 [label="tip <= 2.27\nsquared_error = 0.001\nsamples = 36\nvalue = 0.216"] ;
60 -> 70 ;
71 [label="total_bill <= 12.88\nsquared_error = 0.001\nsamples = 20\nvalue = 0.187"] ;
70 -> 71 ;
72 [label="total_bill <= 10.86\nsquared_error = 0.0\nsamples = 8\nvalue = 0.212"] ;
71 -> 72 ;
73 [label="label_sex <= 0.5\nsquared_error = 0.0\nsamples = 2\nvalue = 0.24"] ;
72 -> 73 ;
74 [label="squared_error = 0.0\nsamples = 1\nvalue = 0.24"] ;
73 -> 74 ;
75 [label="squared_error = -0.0\nsamples = 1\nvalue = 0.24"] ;
73 -> 75 ;
76 [label="tip <= 2.105\nsquared_error = 0.0\nsamples = 6\nvalue = 0.203"] ;
72 -> 76 ;
77 [label="total_bill <= 11.7\nsquared_error = 0.0\nsamples = 4\nvalue = 0.196"] ;
76 -> 77 ;
78 [label="squared_error = 0.0\nsamples = 1\nvalue = 0.213"] ;
77 -> 78 ;
79 [label="tip <= 1.985\nsquared_error = 0.0\nsamples = 3\nvalue = 0.19"] ;
77 -> 79 ;
80 [label="squared_error = 0.0\nsamples = 1\nvalue = 0.196"] ;
79 -> 80 ;
81 [label="total_bill <= 12.715\nsquared_error = 0.0\nsamples = 2\nvalue = 0.187"] ;
79 -> 81 ;
82 [label="squared_error = 0.0\nsamples = 1\nvalue = 0.187"] ;
81 -> 82 ;
83 [label="squared_error = -0.0\nsamples = 1\nvalue = 0.187"] ;
81 -> 83 ;
84 [label="total_bill <= 12.46\nsquared_error = 0.0\nsamples = 2\nvalue = 0.216"] ;
76 -> 84 ;
85 [label="squared_error = 0.0\nsamples = 1\nvalue = 0.221"] ;
84 -> 85 ;
86 [label="squared_error = 0.0\nsamples = 1\nvalue = 0.212"] ;
84 -> 86 ;
87 [label="total_bill <= 13.83\nsquared_error = 0.0\nsamples = 12\nvalue = 0.171"] ;
71 -> 87 ;
88 [label="total_bill <= 13.25\nsquared_error = 0.0\nsamples = 6\nvalue = 0.179"] ;
87 -> 88 ;
89 [label="label_time <= 0.5\nsquared_error = 0.0\nsamples = 4\nvalue = 0.181"] ;
88 -> 89 ;
90 [label="squared_error = 0.0\nsamples = 1\nvalue = 0.18"] ;
89 -> 90 ;
91 [label="label_smoker <= 0.5\nsquared_error = 0.0\nsamples = 3\nvalue = 0.182"] ;
89 -> 91 ;
92 [label="squared_error = 0.0\nsamples = 1\nvalue = 0.181"] ;
91 -> 92 ;
93 [label="squared_error = -0.0\nsamples = 2\nvalue = 0.182"] ;
91 -> 93 ;
94 [label="total_bill <= 13.44\nsquared_error = 0.0\nsamples = 2\nvalue = 0.175"] ;
88 -> 94 ;
95 [label="squared_error = 0.0\nsamples = 1\nvalue = 0.176"] ;
94 -> 95 ;
96 [label="squared_error = -0.0\nsamples = 1\nvalue = 0.174"] ;
94 -> 96 ;
97 [label="tip <= 1.98\nsquared_error = 0.0\nsamples = 6\nvalue = 0.163"] ;
87 -> 97 ;
98 [label="squared_error = 0.0\nsamples = 1\nvalue = 0.15"] ;
97 -> 98 ;
99 [label="tip <= 2.145\nsquared_error = 0.0\nsamples = 5\nvalue = 0.165"] ;
97 -> 99 ;
100 [label="label_day <= 2.5\nsquared_error = 0.0\nsamples = 3\nvalue = 0.162"] ;
99 -> 100 ;
101 [label="tip <= 2.045\nsquared_error = 0.0\nsamples = 2\nvalue = 0.161"] ;
100 -> 101 ;
102 [label="squared_error = 0.0\nsamples = 1\nvalue = 0.16"] ;
101 -> 102 ;
103 [label="squared_error = -0.0\nsamples = 1\nvalue = 0.162"] ;
101 -> 103 ;
104 [label="squared_error = -0.0\nsamples = 1\nvalue = 0.165"] ;
100 -> 104 ;
105 [label="tip <= 2.215\nsquared_error = 0.0\nsamples = 2\nvalue = 0.17"] ;
99 -> 105 ;
106 [label="squared_error = 0.0\nsamples = 1\nvalue = 0.176"] ;
105 -> 106 ;
107 [label="squared_error = 0.0\nsamples = 1\nvalue = 0.165"] ;
105 -> 107 ;
108 [label="total_bill <= 11.52\nsquared_error = 0.0\nsamples = 16\nvalue = 0.251"] ;
70 -> 108 ;
109 [label="squared_error = 0.0\nsamples = 1\nvalue = 0.282"] ;
108 -> 109 ;
110 [label="label_smoker <= 0.5\nsquared_error = 0.0\nsamples = 15\nvalue = 0.249"] ;
108 -> 110 ;
111 [label="tip <= 2.665\nsquared_error = 0.0\nsamples = 10\nvalue = 0.254"] ;
110 -> 111 ;
112 [label="total_bill <= 12.6\nsquared_error = 0.0\nsamples = 5\nvalue = 0.247"] ;
111 -> 112 ;
113 [label="tip <= 2.51\nsquared_error = 0.0\nsamples = 3\nvalue = 0.249"] ;
112 -> 113 ;
114 [label="label_time <= 0.5\nsquared_error = 0.0\nsamples = 2\nvalue = 0.248"] ;
113 -> 114 ;
115 [label="squared_error = 0.0\nsamples = 1\nvalue = 0.249"] ;
114 -> 115 ;
116 [label="squared_error = 0.0\nsamples = 1\nvalue = 0.246"] ;
114 -> 116 ;
117 [label="squared_error = 0.0\nsamples = 1\nvalue = 0.253"] ;
113 -> 117 ;
118 [label="label_sex <= 0.5\nsquared_error = 0.0\nsamples = 2\nvalue = 0.244"] ;
112 -> 118 ;
119 [label="squared_error = 0.0\nsamples = 1\nvalue = 0.242"] ;
118 -> 119 ;
120 [label="squared_error = 0.0\nsamples = 1\nvalue = 0.246"] ;
118 -> 120 ;
121 [label="total_bill <= 14.415\nsquared_error = 0.0\nsamples = 5\nvalue = 0.26"] ;
111 -> 121 ;
122 [label="tip <= 2.875\nsquared_error = 0.0\nsamples = 3\nvalue = 0.265"] ;
121 -> 122 ;
123 [label="total_bill <= 13.22\nsquared_error = 0.0\nsamples = 2\nvalue = 0.261"] ;
122 -> 123 ;
124 [label="squared_error = 0.0\nsamples = 1\nvalue = 0.264"] ;
123 -> 124 ;
125 [label="squared_error = -0.0\nsamples = 1\nvalue = 0.258"] ;
123 -> 125 ;
126 [label="squared_error = -0.0\nsamples = 1\nvalue = 0.273"] ;
122 -> 126 ;
127 [label="label_day <= 1.5\nsquared_error = 0.0\nsamples = 2\nvalue = 0.252"] ;
121 -> 127 ;
128 [label="squared_error = 0.0\nsamples = 1\nvalue = 0.249"] ;
127 -> 128 ;
129 [label="squared_error = -0.0\nsamples = 1\nvalue = 0.256"] ;
127 -> 129 ;
130 [label="tip <= 3.08\nsquared_error = 0.0\nsamples = 5\nvalue = 0.24"] ;
110 -> 130 ;
131 [label="total_bill <= 14.325\nsquared_error = 0.0\nsamples = 4\nvalue = 0.238"] ;
130 -> 131 ;
132 [label="squared_error = 0.0\nsamples = 1\nvalue = 0.232"] ;
131 -> 132 ;
133 [label="size <= 2.5\nsquared_error = 0.0\nsamples = 3\nvalue = 0.239"] ;
131 -> 133 ;
134 [label="label_sex <= 0.5\nsquared_error = 0.0\nsamples = 2\nvalue = 0.241"] ;
133 -> 134 ;
135 [label="squared_error = 0.0\nsamples = 1\nvalue = 0.242"] ;
134 -> 135 ;
136 [label="squared_error = 0.0\nsamples = 1\nvalue = 0.239"] ;
134 -> 136 ;
137 [label="squared_error = -0.0\nsamples = 1\nvalue = 0.236"] ;
133 -> 137 ;
138 [label="squared_error = -0.0\nsamples = 1\nvalue = 0.25"] ;
130 -> 138 ;
139 [label="total_bill <= 22.79\nsquared_error = 0.002\nsamples = 57\nvalue = 0.132"] ;
1 -> 139 ;
140 [label="tip <= 2.325\nsquared_error = 0.001\nsamples = 37\nvalue = 0.153"] ;
139 -> 140 ;
141 [label="tip <= 1.625\nsquared_error = 0.001\nsamples = 17\nvalue = 0.121"] ;
140 -> 141 ;
142 [label="label_time <= 0.5\nsquared_error = 0.0\nsamples = 3\nvalue = 0.076"] ;
141 -> 142 ;
143 [label="squared_error = 0.0\nsamples = 1\nvalue = 0.063"] ;
142 -> 143 ;
144 [label="size <= 2.5\nsquared_error = 0.0\nsamples = 2\nvalue = 0.082"] ;
142 -> 144 ;
145 [label="squared_error = 0.0\nsamples = 1\nvalue = 0.085"] ;
144 -> 145 ;
146 [label="squared_error = 0.0\nsamples = 1\nvalue = 0.079"] ;
144 -> 146 ;
147 [label="total_bill <= 17.155\nsquared_error = 0.0\nsamples = 14\nvalue = 0.131"] ;
141 -> 147 ;
148 [label="tip <= 2.135\nsquared_error = 0.0\nsamples = 7\nvalue = 0.145"] ;
147 -> 148 ;
149 [label="label_time <= 0.5\nsquared_error = 0.0\nsamples = 6\nvalue = 0.142"] ;
148 -> 149 ;
150 [label="total_bill <= 16.4\nsquared_error = 0.0\nsamples = 3\nvalue = 0.14"] ;
149 -> 150 ;
151 [label="label_day <= 1.5\nsquared_error = 0.0\nsamples = 2\nvalue = 0.14"] ;
150 -> 151 ;
152 [label="squared_error = 0.0\nsamples = 1\nvalue = 0.14"] ;
151 -> 152 ;
153 [label="squared_error = 0.0\nsamples = 1\nvalue = 0.141"] ;
151 -> 153 ;
154 [label="squared_error = 0.0\nsamples = 1\nvalue = 0.138"] ;
150 -> 154 ;
155 [label="tip <= 2.015\nsquared_error = 0.0\nsamples = 3\nvalue = 0.144"] ;
149 -> 155 ;
156 [label="total_bill <= 15.975\nsquared_error = 0.0\nsamples = 2\nvalue = 0.143"] ;
155 -> 156 ;
157 [label="squared_error = 0.0\nsamples = 1\nvalue = 0.143"] ;
156 -> 157 ;
158 [label="squared_error = 0.0\nsamples = 1\nvalue = 0.143"] ;
156 -> 158 ;
159 [label="squared_error = -0.0\nsamples = 1\nvalue = 0.146"] ;
155 -> 159 ;
160 [label="squared_error = -0.0\nsamples = 1\nvalue = 0.162"] ;
148 -> 160 ;
161 [label="tip <= 2.275\nsquared_error = 0.0\nsamples = 7\nvalue = 0.117"] ;
147 -> 161 ;
162 [label="label_day <= 1.5\nsquared_error = 0.0\nsamples = 6\nvalue = 0.113"] ;
161 -> 162 ;
163 [label="label_smoker <= 0.5\nsquared_error = 0.0\nsamples = 3\nvalue = 0.105"] ;
162 -> 163 ;
164 [label="tip <= 1.88\nsquared_error = 0.0\nsamples = 2\nvalue = 0.11"] ;
163 -> 164 ;
165 [label="squared_error = 0.0\nsamples = 1\nvalue = 0.109"] ;
164 -> 165 ;
166 [label="squared_error = 0.0\nsamples = 1\nvalue = 0.11"] ;
164 -> 166 ;
167 [label="squared_error = -0.0\nsamples = 1\nvalue = 0.097"] ;
163 -> 167 ;
168 [label="size <= 3.0\nsquared_error = 0.0\nsamples = 3\nvalue = 0.12"] ;
162 -> 168 ;
169 [label="label_smoker <= 0.5\nsquared_error = 0.0\nsamples = 2\nvalue = 0.123"] ;
168 -> 169 ;
170 [label="squared_error = 0.0\nsamples = 1\nvalue = 0.121"] ;
169 -> 170 ;
171 [label="squared_error = -0.0\nsamples = 1\nvalue = 0.126"] ;
169 -> 171 ;
172 [label="squared_error = -0.0\nsamples = 1\nvalue = 0.113"] ;
168 -> 172 ;
173 [label="squared_error = 0.0\nsamples = 1\nvalue = 0.141"] ;
161 -> 173 ;
174 [label="total_bill <= 20.73\nsquared_error = 0.0\nsamples = 20\nvalue = 0.18"] ;
140 -> 174 ;
175 [label="tip <= 2.915\nsquared_error = 0.0\nsamples = 17\nvalue = 0.184"] ;
174 -> 175 ;
176 [label="total_bill <= 17.7\nsquared_error = 0.0\nsamples = 7\nvalue = 0.172"] ;
175 -> 176 ;
177 [label="tip <= 2.69\nsquared_error = 0.0\nsamples = 5\nvalue = 0.178"] ;
176 -> 177 ;
178 [label="tip <= 2.52\nsquared_error = 0.0\nsamples = 4\nvalue = 0.176"] ;
177 -> 178 ;
179 [label="label_time <= 0.5\nsquared_error = 0.0\nsamples = 2\nvalue = 0.178"] ;
178 -> 179 ;
180 [label="squared_error = 0.0\nsamples = 1\nvalue = 0.177"] ;
179 -> 180 ;
181 [label="squared_error = -0.0\nsamples = 1\nvalue = 0.18"] ;
179 -> 181 ;
182 [label="label_day <= 1.5\nsquared_error = 0.0\nsamples = 2\nvalue = 0.173"] ;
178 -> 182 ;
183 [label="squared_error = 0.0\nsamples = 1\nvalue = 0.177"] ;
182 -> 183 ;
184 [label="squared_error = 0.0\nsamples = 1\nvalue = 0.17"] ;
182 -> 184 ;
185 [label="squared_error = 0.0\nsamples = 1\nvalue = 0.189"] ;
177 -> 185 ;
186 [label="label_day <= 2.0\nsquared_error = 0.0\nsamples = 2\nvalue = 0.157"] ;
176 -> 186 ;
187 [label="squared_error = 0.0\nsamples = 1\nvalue = 0.151"] ;
186 -> 187 ;
188 [label="squared_error = 0.0\nsamples = 1\nvalue = 0.162"] ;
186 -> 188 ;
189 [label="total_bill <= 18.605\nsquared_error = 0.0\nsamples = 10\nvalue = 0.192"] ;
175 -> 189 ;
190 [label="total_bill <= 17.98\nsquared_error = 0.0\nsamples = 5\nvalue = 0.201"] ;
189 -> 190 ;
191 [label="total_bill <= 17.715\nsquared_error = 0.0\nsamples = 2\nvalue = 0.207"] ;
190 -> 191 ;
192 [label="squared_error = 0.0\nsamples = 1\nvalue = 0.207"] ;
191 -> 192 ;
193 [label="squared_error = 0.0\nsamples = 1\nvalue = 0.208"] ;
191 -> 193 ;
194 [label="total_bill <= 18.165\nsquared_error = 0.0\nsamples = 3\nvalue = 0.197"] ;
190 -> 194 ;
195 [label="squared_error = 0.0\nsamples = 1\nvalue = 0.199"] ;
194 -> 195 ;
196 [label="total_bill <= 18.36\nsquared_error = 0.0\nsamples = 2\nvalue = 0.195"] ;
194 -> 196 ;
197 [label="squared_error = 0.0\nsamples = 1\nvalue = 0.196"] ;
196 -> 197 ;
198 [label="squared_error = 0.0\nsamples = 1\nvalue = 0.194"] ;
196 -> 198 ;
199 [label="total_bill <= 20.37\nsquared_error = 0.0\nsamples = 5\nvalue = 0.183"] ;
189 -> 199 ;
200 [label="total_bill <= 19.215\nsquared_error = 0.0\nsamples = 4\nvalue = 0.186"] ;
199 -> 200 ;
201 [label="squared_error = 0.0\nsamples = 1\nvalue = 0.19"] ;
200 -> 201 ;
202 [label="tip <= 3.075\nsquared_error = 0.0\nsamples = 3\nvalue = 0.185"] ;
200 -> 202 ;
203 [label="squared_error = 0.0\nsamples = 1\nvalue = 0.18"] ;
202 -> 203 ;
204 [label="label_smoker <= 0.5\nsquared_error = 0.0\nsamples = 2\nvalue = 0.187"] ;
202 -> 204 ;
205 [label="squared_error = 0.0\nsamples = 1\nvalue = 0.186"] ;
204 -> 205 ;
206 [label="squared_error = 0.0\nsamples = 1\nvalue = 0.188"] ;
204 -> 206 ;
207 [label="squared_error = 0.0\nsamples = 1\nvalue = 0.172"] ;
199 -> 207 ;
208 [label="total_bill <= 21.565\nsquared_error = 0.0\nsamples = 3\nvalue = 0.156"] ;
174 -> 208 ;
209 [label="squared_error = 0.0\nsamples = 1\nvalue = 0.167"] ;
208 -> 209 ;
210 [label="total_bill <= 22.44\nsquared_error = 0.0\nsamples = 2\nvalue = 0.151"] ;
208 -> 210 ;
211 [label="squared_error = 0.0\nsamples = 1\nvalue = 0.15"] ;
210 -> 211 ;
212 [label="squared_error = 0.0\nsamples = 1\nvalue = 0.152"] ;
210 -> 212 ;
213 [label="tip <= 2.525\nsquared_error = 0.001\nsamples = 20\nvalue = 0.094"] ;
139 -> 213 ;
214 [label="total_bill <= 25.48\nsquared_error = 0.0\nsamples = 9\nvalue = 0.077"] ;
213 -> 214 ;
215 [label="total_bill <= 23.415\nsquared_error = 0.0\nsamples = 4\nvalue = 0.094"] ;
214 -> 215 ;
216 [label="squared_error = 0.0\nsamples = 1\nvalue = 0.106"] ;
215 -> 216 ;
217 [label="label_smoker <= 0.5\nsquared_error = 0.0\nsamples = 3\nvalue = 0.09"] ;
215 -> 217 ;
218 [label="squared_error = 0.0\nsamples = 1\nvalue = 0.089"] ;
217 -> 218 ;
219 [label="total_bill <= 24.14\nsquared_error = 0.0\nsamples = 2\nvalue = 0.091"] ;
217 -> 219 ;
220 [label="squared_error = 0.0\nsamples = 1\nvalue = 0.091"] ;
219 -> 220 ;
221 [label="squared_error = -0.0\nsamples = 1\nvalue = 0.091"] ;
219 -> 221 ;
222 [label="tip <= 1.335\nsquared_error = 0.0\nsamples = 5\nvalue = 0.063"] ;
214 -> 222 ;
223 [label="squared_error = 0.0\nsamples = 1\nvalue = 0.037"] ;
222 -> 223 ;
224 [label="tip <= 2.275\nsquared_error = 0.0\nsamples = 4\nvalue = 0.069"] ;
222 -> 224 ;
225 [label="total_bill <= 26.795\nsquared_error = 0.0\nsamples = 3\nvalue = 0.072"] ;
224 -> 225 ;
226 [label="squared_error = 0.0\nsamples = 1\nvalue = 0.06"] ;
225 -> 226 ;
227 [label="label_sex <= 0.5\nsquared_error = 0.0\nsamples = 2\nvalue = 0.078"] ;
225 -> 227 ;
228 [label="squared_error = 0.0\nsamples = 1\nvalue = 0.079"] ;
227 -> 228 ;
229 [label="squared_error = -0.0\nsamples = 1\nvalue = 0.077"] ;
227 -> 229 ;
230 [label="squared_error = -0.0\nsamples = 1\nvalue = 0.06"] ;
224 -> 230 ;
231 [label="total_bill <= 35.455\nsquared_error = 0.0\nsamples = 11\nvalue = 0.107"] ;
213 -> 231 ;
232 [label="total_bill <= 28.295\nsquared_error = 0.0\nsamples = 8\nvalue = 0.116"] ;
231 -> 232 ;
233 [label="tip <= 3.06\nsquared_error = 0.0\nsamples = 4\nvalue = 0.126"] ;
232 -> 233 ;
234 [label="tip <= 2.775\nsquared_error = 0.0\nsamples = 2\nvalue = 0.119"] ;
233 -> 234 ;
235 [label="squared_error = 0.0\nsamples = 1\nvalue = 0.119"] ;
234 -> 235 ;
236 [label="squared_error = -0.0\nsamples = 1\nvalue = 0.119"] ;
234 -> 236 ;
237 [label="size <= 3.0\nsquared_error = 0.0\nsamples = 2\nvalue = 0.132"] ;
233 -> 237 ;
238 [label="squared_error = 0.0\nsamples = 1\nvalue = 0.132"] ;
237 -> 238 ;
239 [label="squared_error = 0.0\nsamples = 1\nvalue = 0.131"] ;
237 -> 239 ;
240 [label="tip <= 2.825\nsquared_error = 0.0\nsamples = 4\nvalue = 0.107"] ;
232 -> 240 ;
241 [label="squared_error = 0.0\nsamples = 1\nvalue = 0.099"] ;
240 -> 241 ;
242 [label="total_bill <= 32.375\nsquared_error = 0.0\nsamples = 3\nvalue = 0.11"] ;
240 -> 242 ;
243 [label="label_sex <= 0.5\nsquared_error = 0.0\nsamples = 2\nvalue = 0.113"] ;
242 -> 243 ;
244 [label="squared_error = 0.0\nsamples = 1\nvalue = 0.114"] ;
243 -> 244 ;
245 [label="squared_error = 0.0\nsamples = 1\nvalue = 0.111"] ;
243 -> 245 ;
246 [label="squared_error = -0.0\nsamples = 1\nvalue = 0.104"] ;
242 -> 246 ;
247 [label="total_bill <= 39.64\nsquared_error = 0.0\nsamples = 3\nvalue = 0.083"] ;
231 -> 247 ;
248 [label="total_bill <= 38.37\nsquared_error = 0.0\nsamples = 2\nvalue = 0.085"] ;
247 -> 248 ;
249 [label="squared_error = 0.0\nsamples = 1\nvalue = 0.086"] ;
248 -> 249 ;
250 [label="squared_error = 0.0\nsamples = 1\nvalue = 0.084"] ;
248 -> 250 ;
251 [label="squared_error = -0.0\nsamples = 1\nvalue = 0.08"] ;
247 -> 251 ;
252 [label="total_bill <= 23.505\nsquared_error = 0.005\nsamples = 67\nvalue = 0.229"] ;
0 -> 252 [labeldistance=2.5, labelangle=-45, headlabel="False"] ;
253 [label="total_bill <= 16.395\nsquared_error = 0.004\nsamples = 33\nvalue = 0.269"] ;
252 -> 253 ;
254 [label="label_day <= 1.5\nsquared_error = 0.002\nsamples = 6\nvalue = 0.347"] ;
253 -> 254 ;
255 [label="label_day <= 0.5\nsquared_error = 0.001\nsamples = 4\nvalue = 0.377"] ;
254 -> 255 ;
256 [label="label_time <= 0.5\nsquared_error = 0.0\nsamples = 2\nvalue = 0.354"] ;
255 -> 256 ;
257 [label="squared_error = 0.0\nsamples = 1\nvalue = 0.358"] ;
256 -> 257 ;
258 [label="squared_error = 0.0\nsamples = 1\nvalue = 0.35"] ;
256 -> 258 ;
259 [label="label_sex <= 0.5\nsquared_error = 0.0\nsamples = 2\nvalue = 0.4"] ;
255 -> 259 ;
260 [label="squared_error = 0.0\nsamples = 1\nvalue = 0.388"] ;
259 -> 260 ;
261 [label="squared_error = 0.0\nsamples = 1\nvalue = 0.412"] ;
259 -> 261 ;
262 [label="size <= 2.5\nsquared_error = 0.0\nsamples = 2\nvalue = 0.287"] ;
254 -> 262 ;
263 [label="squared_error = 0.0\nsamples = 1\nvalue = 0.28"] ;
262 -> 263 ;
264 [label="squared_error = 0.0\nsamples = 1\nvalue = 0.295"] ;
262 -> 264 ;
265 [label="tip <= 3.96\nsquared_error = 0.002\nsamples = 27\nvalue = 0.252"] ;
253 -> 265 ;
266 [label="total_bill <= 18.89\nsquared_error = 0.001\nsamples = 16\nvalue = 0.225"] ;
265 -> 266 ;
267 [label="tip <= 3.385\nsquared_error = 0.0\nsamples = 9\nvalue = 0.245"] ;
266 -> 267 ;
268 [label="size <= 2.5\nsquared_error = 0.0\nsamples = 3\nvalue = 0.229"] ;
267 -> 268 ;
269 [label="label_day <= 2.0\nsquared_error = 0.0\nsamples = 2\nvalue = 0.221"] ;
268 -> 269 ;
270 [label="squared_error = 0.0\nsamples = 1\nvalue = 0.225"] ;
269 -> 270 ;
271 [label="squared_error = 0.0\nsamples = 1\nvalue = 0.217"] ;
269 -> 271 ;
272 [label="squared_error = -0.0\nsamples = 1\nvalue = 0.244"] ;
268 -> 272 ;
273 [label="label_sex <= 0.5\nsquared_error = 0.0\nsamples = 6\nvalue = 0.254"] ;
267 -> 273 ;
274 [label="label_smoker <= 0.5\nsquared_error = 0.0\nsamples = 4\nvalue = 0.251"] ;
273 -> 274 ;
275 [label="total_bill <= 17.14\nsquared_error = 0.0\nsamples = 3\nvalue = 0.255"] ;
274 -> 275 ;
276 [label="squared_error = 0.0\nsamples = 1\nvalue = 0.26"] ;
275 -> 276 ;
277 [label="total_bill <= 17.39\nsquared_error = 0.0\nsamples = 2\nvalue = 0.252"] ;
275 -> 277 ;
278 [label="squared_error = 0.0\nsamples = 1\nvalue = 0.253"] ;
277 -> 278 ;
279 [label="squared_error = 0.0\nsamples = 1\nvalue = 0.251"] ;
277 -> 279 ;
280 [label="squared_error = 0.0\nsamples = 1\nvalue = 0.239"] ;
274 -> 280 ;
281 [label="total_bill <= 18.265\nsquared_error = 0.0\nsamples = 2\nvalue = 0.259"] ;
273 -> 281 ;
282 [label="squared_error = 0.0\nsamples = 1\nvalue = 0.26"] ;
281 -> 282 ;
283 [label="squared_error = 0.0\nsamples = 1\nvalue = 0.259"] ;
281 -> 283 ;
284 [label="label_day <= 1.5\nsquared_error = 0.0\nsamples = 7\nvalue = 0.198"] ;
266 -> 284 ;
285 [label="total_bill <= 22.585\nsquared_error = 0.0\nsamples = 2\nvalue = 0.175"] ;
284 -> 285 ;
286 [label="squared_error = 0.0\nsamples = 1\nvalue = 0.184"] ;
285 -> 286 ;
287 [label="squared_error = 0.0\nsamples = 1\nvalue = 0.167"] ;
285 -> 287 ;
288 [label="size <= 2.5\nsquared_error = 0.0\nsamples = 5\nvalue = 0.207"] ;
284 -> 288 ;
289 [label="tip <= 3.715\nsquared_error = 0.0\nsamples = 2\nvalue = 0.221"] ;
288 -> 289 ;
290 [label="squared_error = 0.0\nsamples = 1\nvalue = 0.22"] ;
289 -> 290 ;
291 [label="squared_error = 0.0\nsamples = 1\nvalue = 0.222"] ;
289 -> 291 ;
292 [label="total_bill <= 21.255\nsquared_error = 0.0\nsamples = 3\nvalue = 0.198"] ;
288 -> 292 ;
293 [label="label_smoker <= 0.5\nsquared_error = 0.0\nsamples = 2\nvalue = 0.201"] ;
292 -> 293 ;
294 [label="squared_error = 0.0\nsamples = 1\nvalue = 0.2"] ;
293 -> 294 ;
295 [label="squared_error = 0.0\nsamples = 1\nvalue = 0.201"] ;
293 -> 295 ;
296 [label="squared_error = 0.0\nsamples = 1\nvalue = 0.194"] ;
292 -> 296 ;
297 [label="tip <= 6.075\nsquared_error = 0.002\nsamples = 11\nvalue = 0.292"] ;
265 -> 297 ;
298 [label="label_day <= 1.5\nsquared_error = 0.001\nsamples = 10\nvalue = 0.282"] ;
297 -> 298 ;
299 [label="label_sex <= 0.5\nsquared_error = 0.0\nsamples = 3\nvalue = 0.246"] ;
298 -> 299 ;
300 [label="squared_error = 0.0\nsamples = 1\nvalue = 0.242"] ;
299 -> 300 ;
301 [label="label_smoker <= 0.5\nsquared_error = 0.0\nsamples = 2\nvalue = 0.247"] ;
299 -> 301 ;
302 [label="squared_error = 0.0\nsamples = 1\nvalue = 0.247"] ;
301 -> 302 ;
303 [label="squared_error = 0.0\nsamples = 1\nvalue = 0.247"] ;
301 -> 303 ;
304 [label="label_time <= 0.5\nsquared_error = 0.001\nsamples = 7\nvalue = 0.297"] ;
298 -> 304 ;
305 [label="label_smoker <= 0.5\nsquared_error = 0.0\nsamples = 4\nvalue = 0.31"] ;
304 -> 305 ;
306 [label="size <= 3.5\nsquared_error = 0.0\nsamples = 2\nvalue = 0.304"] ;
305 -> 306 ;
307 [label="squared_error = 0.0\nsamples = 1\nvalue = 0.29"] ;
306 -> 307 ;
308 [label="squared_error = 0.0\nsamples = 1\nvalue = 0.319"] ;
306 -> 308 ;
309 [label="total_bill <= 20.075\nsquared_error = 0.0\nsamples = 2\nvalue = 0.316"] ;
305 -> 309 ;
310 [label="squared_error = 0.0\nsamples = 1\nvalue = 0.312"] ;
309 -> 310 ;
311 [label="squared_error = 0.0\nsamples = 1\nvalue = 0.32"] ;
309 -> 311 ;
312 [label="total_bill <= 19.405\nsquared_error = 0.001\nsamples = 3\nvalue = 0.28"] ;
304 -> 312 ;
313 [label="label_smoker <= 0.5\nsquared_error = 0.0\nsamples = 2\nvalue = 0.299"] ;
312 -> 313 ;
314 [label="squared_error = 0.0\nsamples = 1\nvalue = 0.28"] ;
313 -> 314 ;
315 [label="squared_error = -0.0\nsamples = 1\nvalue = 0.318"] ;
313 -> 315 ;
316 [label="squared_error = 0.0\nsamples = 1\nvalue = 0.242"] ;
312 -> 316 ;
317 [label="squared_error = 0.0\nsamples = 1\nvalue = 0.39"] ;
297 -> 317 ;
318 [label="tip <= 5.035\nsquared_error = 0.002\nsamples = 34\nvalue = 0.191"] ;
252 -> 318 ;
319 [label="total_bill <= 33.655\nsquared_error = 0.001\nsamples = 22\nvalue = 0.165"] ;
318 -> 319 ;
320 [label="tip <= 4.245\nsquared_error = 0.001\nsamples = 15\nvalue = 0.181"] ;
319 -> 320 ;
321 [label="tip <= 3.445\nsquared_error = 0.0\nsamples = 9\nvalue = 0.169"] ;
320 -> 321 ;
322 [label="size <= 2.5\nsquared_error = 0.0\nsamples = 2\nvalue = 0.155"] ;
321 -> 322 ;
323 [label="squared_error = 0.0\nsamples = 1\nvalue = 0.162"] ;
322 -> 323 ;
324 [label="squared_error = 0.0\nsamples = 1\nvalue = 0.147"] ;
322 -> 324 ;
325 [label="tip <= 4.1\nsquared_error = 0.0\nsamples = 7\nvalue = 0.173"] ;
321 -> 325 ;
326 [label="label_sex <= 0.5\nsquared_error = 0.0\nsamples = 6\nvalue = 0.174"] ;
325 -> 326 ;
327 [label="total_bill <= 25.355\nsquared_error = 0.0\nsamples = 2\nvalue = 0.18"] ;
326 -> 327 ;
328 [label="squared_error = 0.0\nsamples = 1\nvalue = 0.176"] ;
327 -> 328 ;
329 [label="squared_error = -0.0\nsamples = 1\nvalue = 0.184"] ;
327 -> 329 ;
330 [label="tip <= 3.54\nsquared_error = 0.0\nsamples = 4\nvalue = 0.171"] ;
326 -> 330 ;
331 [label="squared_error = 0.0\nsamples = 1\nvalue = 0.165"] ;
330 -> 331 ;
332 [label="total_bill <= 25.63\nsquared_error = 0.0\nsamples = 3\nvalue = 0.173"] ;
330 -> 332 ;
333 [label="squared_error = 0.0\nsamples = 1\nvalue = 0.176"] ;
332 -> 333 ;
334 [label="label_smoker <= 0.5\nsquared_error = 0.0\nsamples = 2\nvalue = 0.172"] ;
332 -> 334 ;
335 [label="squared_error = 0.0\nsamples = 1\nvalue = 0.172"] ;
334 -> 335 ;
336 [label="squared_error = -0.0\nsamples = 1\nvalue = 0.172"] ;
334 -> 336 ;
337 [label="squared_error = 0.0\nsamples = 1\nvalue = 0.164"] ;
325 -> 337 ;
338 [label="label_sex <= 0.5\nsquared_error = 0.001\nsamples = 6\nvalue = 0.199"] ;
320 -> 338 ;
339 [label="squared_error = 0.0\nsamples = 1\nvalue = 0.247"] ;
338 -> 339 ;
340 [label="total_bill <= 31.49\nsquared_error = 0.0\nsamples = 5\nvalue = 0.189"] ;
338 -> 340 ;
341 [label="total_bill <= 28.415\nsquared_error = 0.0\nsamples = 3\nvalue = 0.2"] ;
340 -> 341 ;
342 [label="size <= 3.0\nsquared_error = 0.0\nsamples = 2\nvalue = 0.205"] ;
341 -> 342 ;
343 [label="squared_error = 0.0\nsamples = 1\nvalue = 0.205"] ;
342 -> 343 ;
344 [label="squared_error = -0.0\nsamples = 1\nvalue = 0.205"] ;
342 -> 344 ;
345 [label="squared_error = 0.0\nsamples = 1\nvalue = 0.19"] ;
341 -> 345 ;
346 [label="label_smoker <= 0.5\nsquared_error = 0.0\nsamples = 2\nvalue = 0.173"] ;
340 -> 346 ;
347 [label="squared_error = 0.0\nsamples = 1\nvalue = 0.165"] ;
346 -> 347 ;
348 [label="squared_error = 0.0\nsamples = 1\nvalue = 0.181"] ;
346 -> 348 ;
349 [label="label_sex <= 0.5\nsquared_error = 0.0\nsamples = 7\nvalue = 0.131"] ;
319 -> 349 ;
350 [label="total_bill <= 35.545\nsquared_error = 0.0\nsamples = 2\nvalue = 0.158"] ;
349 -> 350 ;
351 [label="squared_error = 0.0\nsamples = 1\nvalue = 0.165"] ;
350 -> 351 ;
352 [label="squared_error = 0.0\nsamples = 1\nvalue = 0.15"] ;
350 -> 352 ;
353 [label="label_day <= 1.0\nsquared_error = 0.0\nsamples = 5\nvalue = 0.12"] ;
349 -> 353 ;
354 [label="squared_error = 0.0\nsamples = 1\nvalue = 0.133"] ;
353 -> 354 ;
355 [label="tip <= 3.615\nsquared_error = 0.0\nsamples = 4\nvalue = 0.117"] ;
353 -> 355 ;
356 [label="squared_error = 0.0\nsamples = 1\nvalue = 0.114"] ;
355 -> 356 ;
357 [label="size <= 5.0\nsquared_error = 0.0\nsamples = 3\nvalue = 0.117"] ;
355 -> 357 ;
358 [label="label_smoker <= 0.5\nsquared_error = 0.0\nsamples = 2\nvalue = 0.118"] ;
357 -> 358 ;
359 [label="squared_error = 0.0\nsamples = 1\nvalue = 0.117"] ;
358 -> 359 ;
360 [label="squared_error = -0.0\nsamples = 1\nvalue = 0.119"] ;
358 -> 360 ;
361 [label="squared_error = 0.0\nsamples = 1\nvalue = 0.116"] ;
357 -> 361 ;
362 [label="total_bill <= 29.44\nsquared_error = 0.001\nsamples = 12\nvalue = 0.238"] ;
318 -> 362 ;
363 [label="total_bill <= 25.3\nsquared_error = 0.001\nsamples = 4\nvalue = 0.279"] ;
362 -> 363 ;
364 [label="squared_error = 0.0\nsamples = 1\nvalue = 0.31"] ;
363 -> 364 ;
365 [label="label_sex <= 0.5\nsquared_error = 0.001\nsamples = 3\nvalue = 0.268"] ;
363 -> 365 ;
366 [label="squared_error = 0.0\nsamples = 1\nvalue = 0.3"] ;
365 -> 366 ;
367 [label="total_bill <= 27.46\nsquared_error = 0.0\nsamples = 2\nvalue = 0.253"] ;
365 -> 367 ;
368 [label="squared_error = 0.0\nsamples = 1\nvalue = 0.249"] ;
367 -> 368 ;
369 [label="squared_error = -0.0\nsamples = 1\nvalue = 0.256"] ;
367 -> 369 ;
370 [label="tip <= 7.865\nsquared_error = 0.001\nsamples = 8\nvalue = 0.218"] ;
362 -> 370 ;
371 [label="tip <= 6.715\nsquared_error = 0.001\nsamples = 6\nvalue = 0.212"] ;
370 -> 371 ;
372 [label="tip <= 5.37\nsquared_error = 0.0\nsamples = 5\nvalue = 0.222"] ;
371 -> 372 ;
373 [label="tip <= 5.105\nsquared_error = 0.0\nsamples = 2\nvalue = 0.206"] ;
372 -> 373 ;
374 [label="squared_error = 0.0\nsamples = 1\nvalue = 0.204"] ;
373 -> 374 ;
375 [label="squared_error = 0.0\nsamples = 1\nvalue = 0.208"] ;
373 -> 375 ;
376 [label="label_day <= 2.5\nsquared_error = 0.0\nsamples = 3\nvalue = 0.232"] ;
372 -> 376 ;
377 [label="total_bill <= 31.4\nsquared_error = 0.0\nsamples = 2\nvalue = 0.227"] ;
376 -> 377 ;
378 [label="squared_error = 0.0\nsamples = 1\nvalue = 0.226"] ;
377 -> 378 ;
379 [label="squared_error = -0.0\nsamples = 1\nvalue = 0.227"] ;
377 -> 379 ;
380 [label="squared_error = 0.0\nsamples = 1\nvalue = 0.243"] ;
376 -> 380 ;
381 [label="squared_error = 0.0\nsamples = 1\nvalue = 0.162"] ;
371 -> 381 ;
382 [label="total_bill <= 49.57\nsquared_error = 0.0\nsamples = 2\nvalue = 0.237"] ;
370 -> 382 ;
383 [label="squared_error = 0.0\nsamples = 1\nvalue = 0.229"] ;
382 -> 383 ;
384 [label="squared_error = 0.0\nsamples = 1\nvalue = 0.245"] ;
382 -> 384 ;
}